{
  "features_scaled": [
    -1.662106120272222,
    -1.245507246078897,
    -1.3605729886054303,
    0.41137743470823845,
    2.128585712630441,
    -1.8888554137059712,
    2.7165126838842633,
    -0.6705798745310242,
    0.17955397901167958,
    0.254087373213796,
    -0.03287291138443052,
    -1.0038737295803775,
    2.4360717767746696,
    -1.117671664607601,
    2.5658350347251813,
    0.4608072213365686,
    2.2046695223584236,
    0.45702157545688954,
    0.7597429881459504,
    1.1516253222223773,
    0.6727481527825874,
    0.3837086158836963,
    -1.0940417607737876,
    -1.019259145608081,
    -0.994927044012729,
    -0.8221414010457548,
    -0.7369155112838254,
    0.9734397764273778,
    0.29239221992051256,
    1.6389300774335354,
    -0.25313819270338717,
    -0.2307825241600548,
    1.287685557531807,
    -0.860898789011939,
    -0.5536716878044935,
    -1.0190707329178443,
    -1.051942812135689,
    -1.0190707329178421,
    -0.7856908323689018,
    -0.11630444629212239,
    -0.02139949390076834
  ],
  "features_weighted": [
    34.69530253507653,
    37.74181543791416,
    107.43116230867346,
    100.38921631909056,
    309.3791254783163,
    71.65551703624797,
    286.38705755739795,
    82.76965842343486,
    199.65362922512756,
    30.49655667924593,
    216.1992486447704,
    16.549271383483234,
    302.91204958545916,
    85.1124552563047,
    268.74459901147964,
    99.87896399396568,
    236.45696149553572,
    106.12677355924063,
    3.6018618729658227,
    10.637134249032933,
    11.987327930868855,
    11.97307023329796,
    -11.999999999999902,
    -11.999999100254797,
    -11.999999999999988,
    0.15260283800989993,
    0.07617187499984819,
    0.13546316964258717,
    0.02240114795913903,
    0.1467833227037891,
    0.08635602678554218,
    0.019471460459144867,
    0.14498963647930288,
    0.06090561224477657,
    0.15485491071397708,
    18.64931441326531,
    58.793394290696455,
    0.07313456632653062,
    56.76084088552889,
    98.74545379939933,
    734.4853980849449
  ],
  "features_raw": [
    23.13020169005102,
    25.161210291942776,
    71.62077487244898,
    66.92614421272704,
    206.25275031887756,
    47.770344690831976,
    190.9247050382653,
    55.17977228228991,
    133.10241948341837,
    20.331037786163954,
    144.13283242984693,
    11.032847588988822,
    201.94136639030611,
    56.74163683753647,
    179.16306600765307,
    66.58597599597712,
    157.63797433035714,
    70.75118237282709,
    3.0015515608048524,
    8.864278540860777,
    9.989439942390712,
    9.9775585277483,
    -9.999999999999918,
    -9.999999250212332,
    -9.99999999999999,
    0.15260283800989993,
    0.07617187499984819,
    0.13546316964258717,
    0.02240114795913903,
    0.1467833227037891,
    0.08635602678554218,
    0.019471460459144867,
    0.14498963647930288,
    0.06090561224477657,
    0.15485491071397708,
    23.311643016581634,
    73.49174286337056,
    0.09141820790816327,
    70.95105110691111,
    123.43181724924915,
    918.1067476061811
  ],
  "svm_prediction": "rose",
  "knn_prediction": "tulip"
}